<?xml version="1.0"?>
<opencv_storage>
<!-- Created using Computer Vision System Toolbox(tm) for MATLAB(R) -->
<!-- Version 9.5.0.944444 (R2018b) -->
<!-- Compatible with OpenCV 3.4 -->
<cascade>
  <stageType>BOOST</stageType>
  <featureType>HOG</featureType>
  <height>32</height>
  <width>40</width>
  <stageParams>
    <boostType>GAB</boostType>
    <minHitRate>9.9500000476837158e-01</minHitRate>
    <maxFalseAlarm>5.0000000000000000e-01</maxFalseAlarm>
    <weightTrimRate>9.4999999999999996e-01</weightTrimRate>
    <maxDepth>1</maxDepth>
    <maxWeakCount>100</maxWeakCount></stageParams>
  <featureParams>
    <maxCatCount>0</maxCatCount>
    <featSize>36</featSize></featureParams>
  <stageNum>10</stageNum>
  <stages>
    <!-- stage 0 -->
    <_>
      <maxWeakCount>2</maxWeakCount>
      <stageThreshold>-4.4229516386985779e-01</stageThreshold>
      <weakClassifiers>
        <_>
          <internalNodes>
            0 -1 3 1.1048319749534130e-02</internalNodes>
          <leafValues>
            -8.9470624923706055e-01 4.7998315095901489e-01</leafValues></_>
        <_>
          <internalNodes>
            0 -1 53 3.7899255752563477e-02</internalNodes>
          <leafValues>
            -8.8328766822814941e-01 4.5241105556488037e-01</leafValues></_></weakClassifiers></_>
    <!-- stage 1 -->
    <_>
      <maxWeakCount>4</maxWeakCount>
      <stageThreshold>-1.0504552125930786e+00</stageThreshold>
      <weakClassifiers>
        <_>
          <internalNodes>
            0 -1 27 1.7897780984640121e-02</internalNodes>
          <leafValues>
            -8.1410074234008789e-01 3.8184931874275208e-01</leafValues></_>
        <_>
          <internalNodes>
            0 -1 15 2.9755117371678352e-02</internalNodes>
          <leafValues>
            -9.0565913915634155e-01 3.5258626937866211e-01</leafValues></_>
        <_>
          <internalNodes>
            0 -1 4 9.1218743473291397e-03</internalNodes>
          <leafValues>
            -8.2314395904541016e-01 4.5550906658172607e-01</leafValues></_>
        <_>
          <internalNodes>
            0 -1 12 2.0474757999181747e-02</internalNodes>
          <leafValues>
            -8.3993798494338989e-01 2.9649862647056580e-01</leafValues></_></weakClassifiers></_>
    <!-- stage 2 -->
    <_>
      <maxWeakCount>6</maxWeakCount>
      <stageThreshold>-1.4546771049499512e+00</stageThreshold>
      <weakClassifiers>
        <_>
          <internalNodes>
            0 -1 18 2.9135040938854218e-02</internalNodes>
          <leafValues>
            -6.6529560089111328e-01 3.3888599276542664e-01</leafValues></_>
        <_>
          <internalNodes>
            0 -1 33 9.3627683818340302e-03</internalNodes>
          <leafValues>
            -7.8379583358764648e-01 2.7339962124824524e-01</leafValues></_>
        <_>
          <internalNodes>
            0 -1 48 3.2673217356204987e-02</internalNodes>
          <leafValues>
            -8.5146391391754150e-01 2.5519287586212158e-01</leafValues></_>
        <_>
          <internalNodes>
            0 -1 16 3.5699702799320221e-02</internalNodes>
          <leafValues>
            -8.2494932413101196e-01 2.7645069360733032e-01</leafValues></_>
        <_>
          <internalNodes>
            0 -1 24 8.7737627327442169e-03</internalNodes>
          <leafValues>
            -8.0377227067947388e-01 2.6542964577674866e-01</leafValues></_>
        <_>
          <internalNodes>
            0 -1 30 6.0453871265053749e-03</internalNodes>
          <leafValues>
            -7.0018368959426880e-01 2.6939159631729126e-01</leafValues></_></weakClassifiers></_>
    <!-- stage 3 -->
    <_>
      <maxWeakCount>4</maxWeakCount>
      <stageThreshold>-8.5104298591613770e-01</stageThreshold>
      <weakClassifiers>
        <_>
          <internalNodes>
            0 -1 60 1.7263816669583321e-02</internalNodes>
          <leafValues>
            -7.9245281219482422e-01 1.8231640756130219e-01</leafValues></_>
        <_>
          <internalNodes>
            0 -1 61 1.1315455660223961e-02</internalNodes>
          <leafValues>
            2.1647925674915314e-01 -7.2927820682525635e-01</leafValues></_>
        <_>
          <internalNodes>
            0 -1 31 6.8343537859618664e-03</internalNodes>
          <leafValues>
            -6.6621506214141846e-01 3.1745034456253052e-01</leafValues></_>
        <_>
          <internalNodes>
            0 -1 5 1.4459541067481041e-02</internalNodes>
          <leafValues>
            -5.6493657827377319e-01 3.9114567637443542e-01</leafValues></_></weakClassifiers></_>
    <!-- stage 4 -->
    <_>
      <maxWeakCount>5</maxWeakCount>
      <stageThreshold>-1.1507441997528076e+00</stageThreshold>
      <weakClassifiers>
        <_>
          <internalNodes>
            0 -1 10 1.0481433942914009e-02</internalNodes>
          <leafValues>
            -8.2323914766311646e-01 -2.8475711122155190e-02</leafValues></_>
        <_>
          <internalNodes>
            0 -1 38 1.1415458284318447e-02</internalNodes>
          <leafValues>
            -8.1671541929244995e-01 1.9126789271831512e-01</leafValues></_>
        <_>
          <internalNodes>
            0 -1 36 3.3201433718204498e-02</internalNodes>
          <leafValues>
            -8.9045554399490356e-01 2.4931302666664124e-01</leafValues></_>
        <_>
          <internalNodes>
            0 -1 34 1.1413348838686943e-02</internalNodes>
          <leafValues>
            -7.3988574743270874e-01 2.2127546370029449e-01</leafValues></_>
        <_>
          <internalNodes>
            0 -1 11 1.6448838636279106e-02</internalNodes>
          <leafValues>
            -9.1492402553558350e-01 1.8501965701580048e-01</leafValues></_></weakClassifiers></_>
    <!-- stage 5 -->
    <_>
      <maxWeakCount>9</maxWeakCount>
      <stageThreshold>-1.2879145145416260e+00</stageThreshold>
      <weakClassifiers>
        <_>
          <internalNodes>
            0 -1 19 1.6719204187393188e-01</internalNodes>
          <leafValues>
            -4.7251877188682556e-01 6.0159361362457275e-01</leafValues></_>
        <_>
          <internalNodes>
            0 -1 18 4.7445096075534821e-02</internalNodes>
          <leafValues>
            -3.2645544409751892e-01 5.7784008979797363e-01</leafValues></_>
        <_>
          <internalNodes>
            0 -1 7 7.0609906688332558e-03</internalNodes>
          <leafValues>
            -7.2994720935821533e-01 2.3720112442970276e-01</leafValues></_>
        <_>
          <internalNodes>
            0 -1 25 5.7929065078496933e-03</internalNodes>
          <leafValues>
            -7.6061773300170898e-01 1.7927555739879608e-01</leafValues></_>
        <_>
          <internalNodes>
            0 -1 51 1.4375620521605015e-02</internalNodes>
          <leafValues>
            1.6459527611732483e-01 -9.0750890970230103e-01</leafValues></_>
        <_>
          <internalNodes>
            0 -1 46 1.0420901700854301e-02</internalNodes>
          <leafValues>
            -7.0774894952774048e-01 1.5740606188774109e-01</leafValues></_>
        <_>
          <internalNodes>
            0 -1 31 2.1501649171113968e-03</internalNodes>
          <leafValues>
            -7.8045475482940674e-01 1.5222385525703430e-01</leafValues></_>
        <_>
          <internalNodes>
            0 -1 57 2.9435260221362114e-02</internalNodes>
          <leafValues>
            -7.8075039386749268e-01 1.4749717712402344e-01</leafValues></_>
        <_>
          <internalNodes>
            0 -1 13 8.2471802830696106e-02</internalNodes>
          <leafValues>
            -3.8823390007019043e-01 3.7268757820129395e-01</leafValues></_></weakClassifiers></_>
    <!-- stage 6 -->
    <_>
      <maxWeakCount>10</maxWeakCount>
      <stageThreshold>-1.4454787969589233e+00</stageThreshold>
      <weakClassifiers>
        <_>
          <internalNodes>
            0 -1 6 9.5201786607503891e-03</internalNodes>
          <leafValues>
            -6.6925865411758423e-01 9.8065830767154694e-02</leafValues></_>
        <_>
          <internalNodes>
            0 -1 27 2.6165250688791275e-02</internalNodes>
          <leafValues>
            -4.4804531335830688e-01 2.9483610391616821e-01</leafValues></_>
        <_>
          <internalNodes>
            0 -1 50 5.9389688074588776e-02</internalNodes>
          <leafValues>
            -6.3636934757232666e-01 2.2404615581035614e-01</leafValues></_>
        <_>
          <internalNodes>
            0 -1 1 2.5110874325037003e-02</internalNodes>
          <leafValues>
            -3.6698728799819946e-01 3.9547035098075867e-01</leafValues></_>
        <_>
          <internalNodes>
            0 -1 14 1.3948358595371246e-02</internalNodes>
          <leafValues>
            -7.5749146938323975e-01 2.1855062246322632e-01</leafValues></_>
        <_>
          <internalNodes>
            0 -1 56 6.3343411311507225e-03</internalNodes>
          <leafValues>
            -6.6208100318908691e-01 1.7037360370159149e-01</leafValues></_>
        <_>
          <internalNodes>
            0 -1 39 1.2454296648502350e-01</internalNodes>
          <leafValues>
            -2.2464556992053986e-01 6.4872115850448608e-01</leafValues></_>
        <_>
          <internalNodes>
            0 -1 55 1.4841077849268913e-02</internalNodes>
          <leafValues>
            -6.0428494215011597e-01 2.4865277111530304e-01</leafValues></_>
        <_>
          <internalNodes>
            0 -1 0 7.4525638483464718e-03</internalNodes>
          <leafValues>
            -7.7004474401473999e-01 1.5679588913917542e-01</leafValues></_>
        <_>
          <internalNodes>
            0 -1 45 1.7845109105110168e-02</internalNodes>
          <leafValues>
            1.9496661424636841e-01 -5.7138985395431519e-01</leafValues></_></weakClassifiers></_>
    <!-- stage 7 -->
    <_>
      <maxWeakCount>11</maxWeakCount>
      <stageThreshold>-1.2202516794204712e+00</stageThreshold>
      <weakClassifiers>
        <_>
          <internalNodes>
            0 -1 28 3.0453184153884649e-03</internalNodes>
          <leafValues>
            -6.5217393636703491e-01 3.0490863323211670e-01</leafValues></_>
        <_>
          <internalNodes>
            0 -1 35 3.6958724260330200e-02</internalNodes>
          <leafValues>
            -2.8503984212875366e-01 5.5673646926879883e-01</leafValues></_>
        <_>
          <internalNodes>
            0 -1 4 1.0319464839994907e-02</internalNodes>
          <leafValues>
            -5.6056392192840576e-01 2.5259011983871460e-01</leafValues></_>
        <_>
          <internalNodes>
            0 -1 49 3.4565329551696777e-02</internalNodes>
          <leafValues>
            -7.5863075256347656e-01 1.6659659147262573e-01</leafValues></_>
        <_>
          <internalNodes>
            0 -1 27 3.8151405751705170e-02</internalNodes>
          <leafValues>
            -3.0962297320365906e-01 4.3402281403541565e-01</leafValues></_>
        <_>
          <internalNodes>
            0 -1 20 3.4272953867912292e-02</internalNodes>
          <leafValues>
            -6.8433266878128052e-01 1.2823569774627686e-01</leafValues></_>
        <_>
          <internalNodes>
            0 -1 23 2.6786979287862778e-02</internalNodes>
          <leafValues>
            -7.7531057596206665e-01 1.2987467646598816e-01</leafValues></_>
        <_>
          <internalNodes>
            0 -1 65 5.9950657188892365e-02</internalNodes>
          <leafValues>
            1.9494330883026123e-01 -5.9594506025314331e-01</leafValues></_>
        <_>
          <internalNodes>
            0 -1 59 4.2576161213219166e-03</internalNodes>
          <leafValues>
            -7.2547489404678345e-01 1.4889696240425110e-01</leafValues></_>
        <_>
          <internalNodes>
            0 -1 21 9.4153042882680893e-03</internalNodes>
          <leafValues>
            1.5651148557662964e-01 -6.7466634511947632e-01</leafValues></_>
        <_>
          <internalNodes>
            0 -1 2 1.5612582676112652e-02</internalNodes>
          <leafValues>
            -4.6381443738937378e-01 2.0895604789257050e-01</leafValues></_></weakClassifiers></_>
    <!-- stage 8 -->
    <_>
      <maxWeakCount>12</maxWeakCount>
      <stageThreshold>-6.8579083681106567e-01</stageThreshold>
      <weakClassifiers>
        <_>
          <internalNodes>
            0 -1 40 8.1198420375585556e-03</internalNodes>
          <leafValues>
            -5.8646619319915771e-01 4.9960160255432129e-01</leafValues></_>
        <_>
          <internalNodes>
            0 -1 19 1.4654357731342316e-01</internalNodes>
          <leafValues>
            -9.3421548604965210e-02 7.6369202136993408e-01</leafValues></_>
        <_>
          <internalNodes>
            0 -1 9 1.0309819132089615e-02</internalNodes>
          <leafValues>
            -4.5586118102073669e-01 2.6823520660400391e-01</leafValues></_>
        <_>
          <internalNodes>
            0 -1 18 3.5441733896732330e-02</internalNodes>
          <leafValues>
            -3.8060566782951355e-01 3.3545878529548645e-01</leafValues></_>
        <_>
          <internalNodes>
            0 -1 48 2.2950422018766403e-02</internalNodes>
          <leafValues>
            -9.2376893758773804e-01 1.8540149927139282e-01</leafValues></_>
        <_>
          <internalNodes>
            0 -1 43 6.9258093833923340e-02</internalNodes>
          <leafValues>
            -4.2407158017158508e-01 2.9884997010231018e-01</leafValues></_>
        <_>
          <internalNodes>
            0 -1 64 7.7664233744144440e-02</internalNodes>
          <leafValues>
            -1.7356008291244507e-01 1.</leafValues></_>
        <_>
          <internalNodes>
            0 -1 22 2.8551369905471802e-02</internalNodes>
          <leafValues>
            -5.7699137926101685e-01 2.2864739596843719e-01</leafValues></_>
        <_>
          <internalNodes>
            0 -1 5 2.2359300404787064e-02</internalNodes>
          <leafValues>
            -3.4843704104423523e-01 2.9782924056053162e-01</leafValues></_>
        <_>
          <internalNodes>
            0 -1 8 5.4440062493085861e-02</internalNodes>
          <leafValues>
            2.0900498330593109e-01 -4.7537183761596680e-01</leafValues></_>
        <_>
          <internalNodes>
            0 -1 63 3.5482354462146759e-02</internalNodes>
          <leafValues>
            8.9443489909172058e-02 -9.6071535348892212e-01</leafValues></_>
        <_>
          <internalNodes>
            0 -1 52 9.4576422125101089e-03</internalNodes>
          <leafValues>
            -7.2351354360580444e-01 9.8895147442817688e-02</leafValues></_></weakClassifiers></_>
    <!-- stage 9 -->
    <_>
      <maxWeakCount>14</maxWeakCount>
      <stageThreshold>-4.7724783420562744e-01</stageThreshold>
      <weakClassifiers>
        <_>
          <internalNodes>
            0 -1 58 4.5966980978846550e-03</internalNodes>
          <leafValues>
            -5.4237288236618042e-01 7.2072070837020874e-01</leafValues></_>
        <_>
          <internalNodes>
            0 -1 37 1.5831820666790009e-01</internalNodes>
          <leafValues>
            -1.5001513063907623e-02 9.1725182533264160e-01</leafValues></_>
        <_>
          <internalNodes>
            0 -1 32 9.5364153385162354e-03</internalNodes>
          <leafValues>
            -5.4173696041107178e-01 2.4903832376003265e-01</leafValues></_>
        <_>
          <internalNodes>
            0 -1 66 1.4155723154544830e-02</internalNodes>
          <leafValues>
            1.9702310860157013e-01 -5.9012633562088013e-01</leafValues></_>
        <_>
          <internalNodes>
            0 -1 44 2.6072394102811813e-02</internalNodes>
          <leafValues>
            1.1780808866024017e-01 -6.0540717840194702e-01</leafValues></_>
        <_>
          <internalNodes>
            0 -1 47 1.6678292304277420e-02</internalNodes>
          <leafValues>
            -8.1640332937240601e-01 1.2137296050786972e-01</leafValues></_>
        <_>
          <internalNodes>
            0 -1 41 2.1299600601196289e-02</internalNodes>
          <leafValues>
            1.0847190022468567e-01 -7.7510321140289307e-01</leafValues></_>
        <_>
          <internalNodes>
            0 -1 54 2.9960606247186661e-02</internalNodes>
          <leafValues>
            -3.1653776764869690e-01 3.2726231217384338e-01</leafValues></_>
        <_>
          <internalNodes>
            0 -1 29 4.1029024869203568e-02</internalNodes>
          <leafValues>
            3.2574200630187988e-01 -3.0969786643981934e-01</leafValues></_>
        <_>
          <internalNodes>
            0 -1 6 1.5398791059851646e-02</internalNodes>
          <leafValues>
            -3.2054781913757324e-01 2.9495006799697876e-01</leafValues></_>
        <_>
          <internalNodes>
            0 -1 62 2.1166779100894928e-02</internalNodes>
          <leafValues>
            1.7695368826389313e-01 -6.3531261682510376e-01</leafValues></_>
        <_>
          <internalNodes>
            0 -1 26 1.0420111007988453e-02</internalNodes>
          <leafValues>
            -4.1280972957611084e-01 2.5280338525772095e-01</leafValues></_>
        <_>
          <internalNodes>
            0 -1 17 1.2150957249104977e-02</internalNodes>
          <leafValues>
            -8.0243659019470215e-01 1.1642415821552277e-01</leafValues></_>
        <_>
          <internalNodes>
            0 -1 42 3.0387263745069504e-02</internalNodes>
          <leafValues>
            1.5373107790946960e-01 -5.5472934246063232e-01</leafValues></_></weakClassifiers></_></stages>
  <features>
    <_>
      <rect>
        0 0 8 8 11</rect></_>
    <_>
      <rect>
        0 0 8 8 18</rect></_>
    <_>
      <rect>
        0 0 8 8 19</rect></_>
    <_>
      <rect>
        0 8 8 8 0</rect></_>
    <_>
      <rect>
        0 12 8 8 25</rect></_>
    <_>
      <rect>
        0 16 8 8 0</rect></_>
    <_>
      <rect>
        0 16 8 8 25</rect></_>
    <_>
      <rect>
        0 16 8 8 29</rect></_>
    <_>
      <rect>
        4 0 8 8 3</rect></_>
    <_>
      <rect>
        4 16 8 8 18</rect></_>
    <_>
      <rect>
        8 16 8 8 20</rect></_>
    <_>
      <rect>
        12 0 8 8 3</rect></_>
    <_>
      <rect>
        12 0 8 8 12</rect></_>
    <_>
      <rect>
        12 0 8 8 13</rect></_>
    <_>
      <rect>
        12 0 8 8 21</rect></_>
    <_>
      <rect>
        16 16 8 8 3</rect></_>
    <_>
      <rect>
        20 0 8 8 4</rect></_>
    <_>
      <rect>
        20 4 8 8 3</rect></_>
    <_>
      <rect>
        20 4 8 8 16</rect></_>
    <_>
      <rect>
        20 8 8 8 4</rect></_>
    <_>
      <rect>
        20 16 8 8 21</rect></_>
    <_>
      <rect>
        20 16 8 8 25</rect></_>
    <_>
      <rect>
        20 16 8 8 30</rect></_>
    <_>
      <rect>
        24 0 8 8 4</rect></_>
    <_>
      <rect>
        24 0 8 8 34</rect></_>
    <_>
      <rect>
        24 4 8 8 34</rect></_>
    <_>
      <rect>
        24 8 8 8 0</rect></_>
    <_>
      <rect>
        24 8 8 8 16</rect></_>
    <_>
      <rect>
        24 12 8 8 0</rect></_>
    <_>
      <rect>
        24 12 8 8 31</rect></_>
    <_>
      <rect>
        24 12 8 8 34</rect></_>
    <_>
      <rect>
        24 16 8 8 34</rect></_>
    <_>
      <rect>
        0 0 8 16 18</rect></_>
    <_>
      <rect>
        0 0 8 16 25</rect></_>
    <_>
      <rect>
        0 0 8 16 26</rect></_>
    <_>
      <rect>
        4 0 8 16 0</rect></_>
    <_>
      <rect>
        16 0 8 16 21</rect></_>
    <_>
      <rect>
        20 0 8 16 4</rect></_>
    <_>
      <rect>
        20 0 8 16 16</rect></_>
    <_>
      <rect>
        24 0 8 16 4</rect></_>
    <_>
      <rect>
        24 0 8 16 15</rect></_>
    <_>
      <rect>
        0 0 16 8 9</rect></_>
    <_>
      <rect>
        0 0 16 8 11</rect></_>
    <_>
      <rect>
        0 0 16 8 13</rect></_>
    <_>
      <rect>
        0 0 16 8 32</rect></_>
    <_>
      <rect>
        0 4 16 8 10</rect></_>
    <_>
      <rect>
        0 12 16 8 7</rect></_>
    <_>
      <rect>
        0 12 16 8 12</rect></_>
    <_>
      <rect>
        0 16 16 8 12</rect></_>
    <_>
      <rect>
        0 16 16 8 13</rect></_>
    <_>
      <rect>
        0 16 16 8 31</rect></_>
    <_>
      <rect>
        0 16 16 8 35</rect></_>
    <_>
      <rect>
        4 16 16 8 11</rect></_>
    <_>
      <rect>
        4 16 16 8 30</rect></_>
    <_>
      <rect>
        8 4 16 8 16</rect></_>
    <_>
      <rect>
        8 4 16 8 17</rect></_>
    <_>
      <rect>
        8 12 16 8 33</rect></_>
    <_>
      <rect>
        8 16 16 8 3</rect></_>
    <_>
      <rect>
        8 16 16 8 32</rect></_>
    <_>
      <rect>
        8 16 16 8 33</rect></_>
    <_>
      <rect>
        0 0 16 16 0</rect></_>
    <_>
      <rect>
        0 0 16 16 35</rect></_>
    <_>
      <rect>
        4 0 16 16 10</rect></_>
    <_>
      <rect>
        4 0 16 16 29</rect></_>
    <_>
      <rect>
        8 0 16 16 8</rect></_>
    <_>
      <rect>
        8 0 16 16 12</rect></_>
    <_>
      <rect>
        8 0 16 16 28</rect></_></features></cascade>
</opencv_storage>
