<?xml version="1.0"?>
<opencv_storage>
<!-- Created using Computer Vision System Toolbox(tm) for MATLAB(R) -->
<!-- Version 9.5.0.944444 (R2018b) -->
<!-- Compatible with OpenCV 3.4 -->
<cascade>
  <stageType>BOOST</stageType>
  <featureType>HOG</featureType>
  <height>32</height>
  <width>40</width>
  <stageParams>
    <boostType>GAB</boostType>
    <minHitRate>9.9500000476837158e-01</minHitRate>
    <maxFalseAlarm>5.0000000000000000e-01</maxFalseAlarm>
    <weightTrimRate>9.4999999999999996e-01</weightTrimRate>
    <maxDepth>1</maxDepth>
    <maxWeakCount>100</maxWeakCount></stageParams>
  <featureParams>
    <maxCatCount>0</maxCatCount>
    <featSize>36</featSize></featureParams>
  <stageNum>14</stageNum>
  <stages>
    <!-- stage 0 -->
    <_>
      <maxWeakCount>2</maxWeakCount>
      <stageThreshold>-4.4229516386985779e-01</stageThreshold>
      <weakClassifiers>
        <_>
          <internalNodes>
            0 -1 5 1.1048319749534130e-02</internalNodes>
          <leafValues>
            -8.9470624923706055e-01 4.7998315095901489e-01</leafValues></_>
        <_>
          <internalNodes>
            0 -1 90 3.7899255752563477e-02</internalNodes>
          <leafValues>
            -8.8328766822814941e-01 4.5241105556488037e-01</leafValues></_></weakClassifiers></_>
    <!-- stage 1 -->
    <_>
      <maxWeakCount>4</maxWeakCount>
      <stageThreshold>-1.0504552125930786e+00</stageThreshold>
      <weakClassifiers>
        <_>
          <internalNodes>
            0 -1 48 1.7897780984640121e-02</internalNodes>
          <leafValues>
            -8.1410074234008789e-01 3.8184931874275208e-01</leafValues></_>
        <_>
          <internalNodes>
            0 -1 36 2.9755117371678352e-02</internalNodes>
          <leafValues>
            -9.0565913915634155e-01 3.5258626937866211e-01</leafValues></_>
        <_>
          <internalNodes>
            0 -1 9 9.1218743473291397e-03</internalNodes>
          <leafValues>
            -8.2314395904541016e-01 4.5550906658172607e-01</leafValues></_>
        <_>
          <internalNodes>
            0 -1 31 2.0474757999181747e-02</internalNodes>
          <leafValues>
            -8.3993798494338989e-01 2.9649862647056580e-01</leafValues></_></weakClassifiers></_>
    <!-- stage 2 -->
    <_>
      <maxWeakCount>6</maxWeakCount>
      <stageThreshold>-1.4546771049499512e+00</stageThreshold>
      <weakClassifiers>
        <_>
          <internalNodes>
            0 -1 41 2.9135040938854218e-02</internalNodes>
          <leafValues>
            -6.6529560089111328e-01 3.3888599276542664e-01</leafValues></_>
        <_>
          <internalNodes>
            0 -1 55 9.3627683818340302e-03</internalNodes>
          <leafValues>
            -7.8379583358764648e-01 2.7339962124824524e-01</leafValues></_>
        <_>
          <internalNodes>
            0 -1 79 3.2673217356204987e-02</internalNodes>
          <leafValues>
            -8.5146391391754150e-01 2.5519287586212158e-01</leafValues></_>
        <_>
          <internalNodes>
            0 -1 39 3.5699702799320221e-02</internalNodes>
          <leafValues>
            -8.2494932413101196e-01 2.7645069360733032e-01</leafValues></_>
        <_>
          <internalNodes>
            0 -1 47 8.7737627327442169e-03</internalNodes>
          <leafValues>
            -8.0377227067947388e-01 2.6542964577674866e-01</leafValues></_>
        <_>
          <internalNodes>
            0 -1 51 6.0453871265053749e-03</internalNodes>
          <leafValues>
            -7.0018368959426880e-01 2.6939159631729126e-01</leafValues></_></weakClassifiers></_>
    <!-- stage 3 -->
    <_>
      <maxWeakCount>4</maxWeakCount>
      <stageThreshold>-8.5104298591613770e-01</stageThreshold>
      <weakClassifiers>
        <_>
          <internalNodes>
            0 -1 102 1.7263816669583321e-02</internalNodes>
          <leafValues>
            -7.9245281219482422e-01 1.8231640756130219e-01</leafValues></_>
        <_>
          <internalNodes>
            0 -1 105 1.1315455660223961e-02</internalNodes>
          <leafValues>
            2.1647925674915314e-01 -7.2927820682525635e-01</leafValues></_>
        <_>
          <internalNodes>
            0 -1 54 6.8343537859618664e-03</internalNodes>
          <leafValues>
            -6.6621506214141846e-01 3.1745034456253052e-01</leafValues></_>
        <_>
          <internalNodes>
            0 -1 11 1.4459541067481041e-02</internalNodes>
          <leafValues>
            -5.6493657827377319e-01 3.9114567637443542e-01</leafValues></_></weakClassifiers></_>
    <!-- stage 4 -->
    <_>
      <maxWeakCount>5</maxWeakCount>
      <stageThreshold>-1.1507441997528076e+00</stageThreshold>
      <weakClassifiers>
        <_>
          <internalNodes>
            0 -1 27 1.0481433942914009e-02</internalNodes>
          <leafValues>
            -8.2323914766311646e-01 -2.8475711122155190e-02</leafValues></_>
        <_>
          <internalNodes>
            0 -1 66 1.1415458284318447e-02</internalNodes>
          <leafValues>
            -8.1671541929244995e-01 1.9126789271831512e-01</leafValues></_>
        <_>
          <internalNodes>
            0 -1 63 3.3201433718204498e-02</internalNodes>
          <leafValues>
            -8.9045554399490356e-01 2.4931302666664124e-01</leafValues></_>
        <_>
          <internalNodes>
            0 -1 56 1.1413348838686943e-02</internalNodes>
          <leafValues>
            -7.3988574743270874e-01 2.2127546370029449e-01</leafValues></_>
        <_>
          <internalNodes>
            0 -1 30 1.6448838636279106e-02</internalNodes>
          <leafValues>
            -9.1492402553558350e-01 1.8501965701580048e-01</leafValues></_></weakClassifiers></_>
    <!-- stage 5 -->
    <_>
      <maxWeakCount>7</maxWeakCount>
      <stageThreshold>-1.6685396432876587e+00</stageThreshold>
      <weakClassifiers>
        <_>
          <internalNodes>
            0 -1 37 9.0160435065627098e-03</internalNodes>
          <leafValues>
            2.4872809648513794e-02 -8.9089310169219971e-01</leafValues></_>
        <_>
          <internalNodes>
            0 -1 69 6.5858334302902222e-02</internalNodes>
          <leafValues>
            -5.8332461118698120e-01 2.9146432876586914e-01</leafValues></_>
        <_>
          <internalNodes>
            0 -1 45 3.0886359512805939e-02</internalNodes>
          <leafValues>
            -7.8010040521621704e-01 2.0144924521446228e-01</leafValues></_>
        <_>
          <internalNodes>
            0 -1 47 2.2961441427469254e-02</internalNodes>
          <leafValues>
            -4.4373235106468201e-01 3.7803193926811218e-01</leafValues></_>
        <_>
          <internalNodes>
            0 -1 14 7.0609906688332558e-03</internalNodes>
          <leafValues>
            -7.6348102092742920e-01 2.2238843142986298e-01</leafValues></_>
        <_>
          <internalNodes>
            0 -1 99 2.9635833576321602e-02</internalNodes>
          <leafValues>
            -7.9890465736389160e-01 1.4825053513050079e-01</leafValues></_>
        <_>
          <internalNodes>
            0 -1 41 5.4910086095333099e-02</internalNodes>
          <leafValues>
            -2.5257423520088196e-01 7.0322299003601074e-01</leafValues></_></weakClassifiers></_>
    <!-- stage 6 -->
    <_>
      <maxWeakCount>6</maxWeakCount>
      <stageThreshold>-1.7547521591186523e+00</stageThreshold>
      <weakClassifiers>
        <_>
          <internalNodes>
            0 -1 64 4.2493045330047607e-03</internalNodes>
          <leafValues>
            4.4315311312675476e-01 -7.3434239625930786e-01</leafValues></_>
        <_>
          <internalNodes>
            0 -1 83 6.8615421652793884e-02</internalNodes>
          <leafValues>
            -6.3955265283584595e-01 3.2517683506011963e-01</leafValues></_>
        <_>
          <internalNodes>
            0 -1 6 2.5039164349436760e-02</internalNodes>
          <leafValues>
            -4.0072572231292725e-01 4.5482385158538818e-01</leafValues></_>
        <_>
          <internalNodes>
            0 -1 81 1.0513411834836006e-02</internalNodes>
          <leafValues>
            2.8310370445251465e-01 -7.3164802789688110e-01</leafValues></_>
        <_>
          <internalNodes>
            0 -1 48 2.6562443003058434e-02</internalNodes>
          <leafValues>
            -4.5228564739227295e-01 3.6393341422080994e-01</leafValues></_>
        <_>
          <internalNodes>
            0 -1 68 2.0058663561940193e-02</internalNodes>
          <leafValues>
            1.8905045092105865e-01 -7.6133030652999878e-01</leafValues></_></weakClassifiers></_>
    <!-- stage 7 -->
    <_>
      <maxWeakCount>10</maxWeakCount>
      <stageThreshold>-1.5947725772857666e+00</stageThreshold>
      <weakClassifiers>
        <_>
          <internalNodes>
            0 -1 61 1.1965793371200562e-01</internalNodes>
          <leafValues>
            -5.4030877351760864e-01 5.0828248262405396e-01</leafValues></_>
        <_>
          <internalNodes>
            0 -1 108 2.0089257508516312e-02</internalNodes>
          <leafValues>
            -5.2288585901260376e-01 2.6600718498229980e-01</leafValues></_>
        <_>
          <internalNodes>
            0 -1 52 5.3968340158462524e-02</internalNodes>
          <leafValues>
            -6.4180809259414673e-01 2.2332715988159180e-01</leafValues></_>
        <_>
          <internalNodes>
            0 -1 3 1.4868983067572117e-02</internalNodes>
          <leafValues>
            -5.0884592533111572e-01 2.6258960366249084e-01</leafValues></_>
        <_>
          <internalNodes>
            0 -1 62 1.1811876669526100e-02</internalNodes>
          <leafValues>
            1.7282606661319733e-01 -7.0692318677902222e-01</leafValues></_>
        <_>
          <internalNodes>
            0 -1 21 2.1632438525557518e-02</internalNodes>
          <leafValues>
            -3.1505274772644043e-01 3.5192060470581055e-01</leafValues></_>
        <_>
          <internalNodes>
            0 -1 48 3.8167670369148254e-02</internalNodes>
          <leafValues>
            -2.6528015732765198e-01 4.0338939428329468e-01</leafValues></_>
        <_>
          <internalNodes>
            0 -1 96 4.6540424227714539e-02</internalNodes>
          <leafValues>
            -4.6987742185592651e-01 2.8742840886116028e-01</leafValues></_>
        <_>
          <internalNodes>
            0 -1 76 1.1207647621631622e-02</internalNodes>
          <leafValues>
            -6.8050771951675415e-01 1.1229991912841797e-01</leafValues></_>
        <_>
          <internalNodes>
            0 -1 29 3.4213606268167496e-03</internalNodes>
          <leafValues>
            2.4468998610973358e-01 -4.0036448836326599e-01</leafValues></_></weakClassifiers></_>
    <!-- stage 8 -->
    <_>
      <maxWeakCount>11</maxWeakCount>
      <stageThreshold>-1.5617548227310181e+00</stageThreshold>
      <weakClassifiers>
        <_>
          <internalNodes>
            0 -1 61 1.7121239006519318e-01</internalNodes>
          <leafValues>
            -4.8285269737243652e-01 7.9675996303558350e-01</leafValues></_>
        <_>
          <internalNodes>
            0 -1 94 1.6384162008762360e-02</internalNodes>
          <leafValues>
            -6.3596582412719727e-01 2.8769871592521667e-01</leafValues></_>
        <_>
          <internalNodes>
            0 -1 32 7.6559051871299744e-02</internalNodes>
          <leafValues>
            -4.5190382003784180e-01 3.7443533539772034e-01</leafValues></_>
        <_>
          <internalNodes>
            0 -1 56 2.0387629047036171e-02</internalNodes>
          <leafValues>
            -4.8671990633010864e-01 3.3460158109664917e-01</leafValues></_>
        <_>
          <internalNodes>
            0 -1 28 5.6337034329771996e-03</internalNodes>
          <leafValues>
            2.6642620563507080e-01 -5.0869798660278320e-01</leafValues></_>
        <_>
          <internalNodes>
            0 -1 16 3.1358741223812103e-02</internalNodes>
          <leafValues>
            3.2908111810684204e-01 -4.0283235907554626e-01</leafValues></_>
        <_>
          <internalNodes>
            0 -1 24 4.9897316843271255e-02</internalNodes>
          <leafValues>
            -5.2492332458496094e-01 2.3011921346187592e-01</leafValues></_>
        <_>
          <internalNodes>
            0 -1 86 4.0066137909889221e-02</internalNodes>
          <leafValues>
            -3.6277812719345093e-01 3.2695260643959045e-01</leafValues></_>
        <_>
          <internalNodes>
            0 -1 49 2.2619757801294327e-02</internalNodes>
          <leafValues>
            -3.3080282807350159e-01 3.5389661788940430e-01</leafValues></_>
        <_>
          <internalNodes>
            0 -1 83 5.9384614229202271e-02</internalNodes>
          <leafValues>
            -5.6237858533859253e-01 1.9143460690975189e-01</leafValues></_>
        <_>
          <internalNodes>
            0 -1 19 1.2834878638386726e-02</internalNodes>
          <leafValues>
            -5.1277703046798706e-01 2.1942131221294403e-01</leafValues></_></weakClassifiers></_>
    <!-- stage 9 -->
    <_>
      <maxWeakCount>14</maxWeakCount>
      <stageThreshold>-1.5641741752624512e+00</stageThreshold>
      <weakClassifiers>
        <_>
          <internalNodes>
            0 -1 33 2.3169410228729248e-01</internalNodes>
          <leafValues>
            -4.7190147638320923e-01 8.3739835023880005e-01</leafValues></_>
        <_>
          <internalNodes>
            0 -1 41 4.6015832573175430e-02</internalNodes>
          <leafValues>
            -3.6529546976089478e-01 4.0977084636688232e-01</leafValues></_>
        <_>
          <internalNodes>
            0 -1 38 2.8633743524551392e-02</internalNodes>
          <leafValues>
            -5.7459533214569092e-01 2.8475466370582581e-01</leafValues></_>
        <_>
          <internalNodes>
            0 -1 100 1.7253264784812927e-02</internalNodes>
          <leafValues>
            1.0327693819999695e-01 -8.5275417566299438e-01</leafValues></_>
        <_>
          <internalNodes>
            0 -1 10 1.3053482398390770e-02</internalNodes>
          <leafValues>
            -5.1511716842651367e-01 2.2720079123973846e-01</leafValues></_>
        <_>
          <internalNodes>
            0 -1 82 2.8296511620283127e-02</internalNodes>
          <leafValues>
            1.1093149334192276e-01 -7.1172535419464111e-01</leafValues></_>
        <_>
          <internalNodes>
            0 -1 50 5.2018493413925171e-02</internalNodes>
          <leafValues>
            2.3343002796173096e-01 -3.9878347516059875e-01</leafValues></_>
        <_>
          <internalNodes>
            0 -1 1 1.3980660587549210e-02</internalNodes>
          <leafValues>
            -5.3073495626449585e-01 1.9044965505599976e-01</leafValues></_>
        <_>
          <internalNodes>
            0 -1 111 1.6799036413431168e-02</internalNodes>
          <leafValues>
            1.4479520916938782e-01 -6.8045330047607422e-01</leafValues></_>
        <_>
          <internalNodes>
            0 -1 4 2.6655955240130424e-02</internalNodes>
          <leafValues>
            -4.1419687867164612e-01 1.9035869836807251e-01</leafValues></_>
        <_>
          <internalNodes>
            0 -1 2 2.8239712119102478e-02</internalNodes>
          <leafValues>
            -2.8680709004402161e-01 3.1190267205238342e-01</leafValues></_>
        <_>
          <internalNodes>
            0 -1 90 3.6013014614582062e-02</internalNodes>
          <leafValues>
            -6.4965301752090454e-01 1.5214487910270691e-01</leafValues></_>
        <_>
          <internalNodes>
            0 -1 67 6.6874055191874504e-03</internalNodes>
          <leafValues>
            -6.0705590248107910e-01 1.2098205089569092e-01</leafValues></_>
        <_>
          <internalNodes>
            0 -1 46 5.8035116642713547e-02</internalNodes>
          <leafValues>
            -3.6377859115600586e-01 2.2539044916629791e-01</leafValues></_></weakClassifiers></_>
    <!-- stage 10 -->
    <_>
      <maxWeakCount>14</maxWeakCount>
      <stageThreshold>-1.3832155466079712e+00</stageThreshold>
      <weakClassifiers>
        <_>
          <internalNodes>
            0 -1 40 2.4303922057151794e-01</internalNodes>
          <leafValues>
            -4.4926980137825012e-01 6.6062605381011963e-01</leafValues></_>
        <_>
          <internalNodes>
            0 -1 93 3.1412973999977112e-02</internalNodes>
          <leafValues>
            -3.5467109084129333e-01 4.1176280379295349e-01</leafValues></_>
        <_>
          <internalNodes>
            0 -1 75 3.8866191171109676e-03</internalNodes>
          <leafValues>
            -7.1921825408935547e-01 1.6196653246879578e-01</leafValues></_>
        <_>
          <internalNodes>
            0 -1 23 3.2214801758527756e-02</internalNodes>
          <leafValues>
            -7.2256064414978027e-01 1.5436065196990967e-01</leafValues></_>
        <_>
          <internalNodes>
            0 -1 26 6.6205244511365891e-03</internalNodes>
          <leafValues>
            -5.3028434514999390e-01 1.5361435711383820e-01</leafValues></_>
        <_>
          <internalNodes>
            0 -1 22 5.2119970321655273e-02</internalNodes>
          <leafValues>
            2.1484944224357605e-01 -4.3651163578033447e-01</leafValues></_>
        <_>
          <internalNodes>
            0 -1 35 8.2970857620239258e-02</internalNodes>
          <leafValues>
            -3.1051456928253174e-01 3.6213731765747070e-01</leafValues></_>
        <_>
          <internalNodes>
            0 -1 8 2.8740707784891129e-02</internalNodes>
          <leafValues>
            1.0233520716428757e-01 -7.2877937555313110e-01</leafValues></_>
        <_>
          <internalNodes>
            0 -1 77 1.6579091548919678e-02</internalNodes>
          <leafValues>
            -5.2758622169494629e-01 1.6512319445610046e-01</leafValues></_>
        <_>
          <internalNodes>
            0 -1 98 4.5928177423775196e-03</internalNodes>
          <leafValues>
            -6.8522900342941284e-01 1.0111687332391739e-01</leafValues></_>
        <_>
          <internalNodes>
            0 -1 34 4.8297955654561520e-03</internalNodes>
          <leafValues>
            1.7561903595924377e-01 -4.8836344480514526e-01</leafValues></_>
        <_>
          <internalNodes>
            0 -1 110 8.9851859956979752e-03</internalNodes>
          <leafValues>
            -8.2837343215942383e-01 9.0033292770385742e-02</leafValues></_>
        <_>
          <internalNodes>
            0 -1 18 2.6642266660928726e-02</internalNodes>
          <leafValues>
            8.1219993531703949e-02 -7.7325117588043213e-01</leafValues></_>
        <_>
          <internalNodes>
            0 -1 104 4.5879483222961426e-02</internalNodes>
          <leafValues>
            6.8753629922866821e-02 -8.0910462141036987e-01</leafValues></_></weakClassifiers></_>
    <!-- stage 11 -->
    <_>
      <maxWeakCount>16</maxWeakCount>
      <stageThreshold>-1.3679124116897583e+00</stageThreshold>
      <weakClassifiers>
        <_>
          <internalNodes>
            0 -1 42 1.4532724022865295e-01</internalNodes>
          <leafValues>
            -3.7865534424781799e-01 6.9268292188644409e-01</leafValues></_>
        <_>
          <internalNodes>
            0 -1 57 3.7736326456069946e-02</internalNodes>
          <leafValues>
            -2.0944309234619141e-01 4.6537157893180847e-01</leafValues></_>
        <_>
          <internalNodes>
            0 -1 55 1.4210037887096405e-02</internalNodes>
          <leafValues>
            -4.5770773291587830e-01 1.7722167074680328e-01</leafValues></_>
        <_>
          <internalNodes>
            0 -1 88 2.0817490294575691e-02</internalNodes>
          <leafValues>
            1.1868924647569656e-01 -7.4582636356353760e-01</leafValues></_>
        <_>
          <internalNodes>
            0 -1 68 1.6512311995029449e-02</internalNodes>
          <leafValues>
            1.4848054945468903e-01 -5.3965252637863159e-01</leafValues></_>
        <_>
          <internalNodes>
            0 -1 94 1.2784611433744431e-02</internalNodes>
          <leafValues>
            -6.1912786960601807e-01 1.4506708085536957e-01</leafValues></_>
        <_>
          <internalNodes>
            0 -1 53 5.3061023354530334e-02</internalNodes>
          <leafValues>
            -3.0828762054443359e-01 2.4043071269989014e-01</leafValues></_>
        <_>
          <internalNodes>
            0 -1 54 5.1429597660899162e-03</internalNodes>
          <leafValues>
            -5.6409072875976563e-01 1.3577125966548920e-01</leafValues></_>
        <_>
          <internalNodes>
            0 -1 80 4.1413001716136932e-02</internalNodes>
          <leafValues>
            -5.8957827091217041e-01 1.5234422683715820e-01</leafValues></_>
        <_>
          <internalNodes>
            0 -1 44 2.9913820326328278e-02</internalNodes>
          <leafValues>
            -2.5023457407951355e-01 2.9622653126716614e-01</leafValues></_>
        <_>
          <internalNodes>
            0 -1 46 2.8748972341418266e-02</internalNodes>
          <leafValues>
            -6.6500514745712280e-01 1.2265440821647644e-01</leafValues></_>
        <_>
          <internalNodes>
            0 -1 0 1.2706392444670200e-02</internalNodes>
          <leafValues>
            -3.9050036668777466e-01 1.6389295458793640e-01</leafValues></_>
        <_>
          <internalNodes>
            0 -1 92 1.4728540182113647e-01</internalNodes>
          <leafValues>
            -8.5035435855388641e-02 9.6514648199081421e-01</leafValues></_>
        <_>
          <internalNodes>
            0 -1 85 3.1938061118125916e-02</internalNodes>
          <leafValues>
            -4.1966933012008667e-01 2.3939873278141022e-01</leafValues></_>
        <_>
          <internalNodes>
            0 -1 28 3.5180454142391682e-03</internalNodes>
          <leafValues>
            2.1247999370098114e-01 -3.5830724239349365e-01</leafValues></_>
        <_>
          <internalNodes>
            0 -1 21 1.0939535684883595e-02</internalNodes>
          <leafValues>
            -3.6747235059738159e-01 2.0494160056114197e-01</leafValues></_></weakClassifiers></_>
    <!-- stage 12 -->
    <_>
      <maxWeakCount>22</maxWeakCount>
      <stageThreshold>-1.0672554969787598e+00</stageThreshold>
      <weakClassifiers>
        <_>
          <internalNodes>
            0 -1 65 1.6056768596172333e-01</internalNodes>
          <leafValues>
            6.5510598942637444e-03 8.1582731008529663e-01</leafValues></_>
        <_>
          <internalNodes>
            0 -1 41 6.5642789006233215e-02</internalNodes>
          <leafValues>
            -1.3532960414886475e-01 5.7191127538681030e-01</leafValues></_>
        <_>
          <internalNodes>
            0 -1 71 2.6141472160816193e-02</internalNodes>
          <leafValues>
            1.4400126039981842e-01 -5.6721633672714233e-01</leafValues></_>
        <_>
          <internalNodes>
            0 -1 11 2.0919870585203171e-02</internalNodes>
          <leafValues>
            -2.9434815049171448e-01 2.1694308519363403e-01</leafValues></_>
        <_>
          <internalNodes>
            0 -1 106 3.9318524301052094e-02</internalNodes>
          <leafValues>
            -6.2783694267272949e-01 8.5393324494361877e-02</leafValues></_>
        <_>
          <internalNodes>
            0 -1 108 2.4067554622888565e-02</internalNodes>
          <leafValues>
            -3.0997142195701599e-01 2.6268315315246582e-01</leafValues></_>
        <_>
          <internalNodes>
            0 -1 50 4.2493902146816254e-02</internalNodes>
          <leafValues>
            2.6519510149955750e-01 -2.8549703955650330e-01</leafValues></_>
        <_>
          <internalNodes>
            0 -1 14 1.3552978634834290e-02</internalNodes>
          <leafValues>
            -4.5571899414062500e-01 1.6053129732608795e-01</leafValues></_>
        <_>
          <internalNodes>
            0 -1 111 1.3813894242048264e-02</internalNodes>
          <leafValues>
            1.5740889310836792e-01 -4.6350094676017761e-01</leafValues></_>
        <_>
          <internalNodes>
            0 -1 107 9.4049766659736633e-02</internalNodes>
          <leafValues>
            -1.1359819769859314e-01 9.0412992238998413e-01</leafValues></_>
        <_>
          <internalNodes>
            0 -1 70 2.3225335404276848e-02</internalNodes>
          <leafValues>
            1.9388629496097565e-01 -6.0405164957046509e-01</leafValues></_>
        <_>
          <internalNodes>
            0 -1 16 2.8719905763864517e-02</internalNodes>
          <leafValues>
            2.1878795325756073e-01 -3.0548295378684998e-01</leafValues></_>
        <_>
          <internalNodes>
            0 -1 59 3.9530312642455101e-03</internalNodes>
          <leafValues>
            2.7896311879158020e-01 -2.5340524315834045e-01</leafValues></_>
        <_>
          <internalNodes>
            0 -1 89 1.0724389925599098e-02</internalNodes>
          <leafValues>
            -5.9534686803817749e-01 1.3684630393981934e-01</leafValues></_>
        <_>
          <internalNodes>
            0 -1 9 1.0147362947463989e-02</internalNodes>
          <leafValues>
            -4.5114290714263916e-01 1.2708131968975067e-01</leafValues></_>
        <_>
          <internalNodes>
            0 -1 15 4.1347458958625793e-02</internalNodes>
          <leafValues>
            -3.5990142822265625e-01 1.5794542431831360e-01</leafValues></_>
        <_>
          <internalNodes>
            0 -1 74 2.5399705395102501e-02</internalNodes>
          <leafValues>
            9.0816847980022430e-02 -6.6192787885665894e-01</leafValues></_>
        <_>
          <internalNodes>
            0 -1 6 2.9245831072330475e-02</internalNodes>
          <leafValues>
            -2.3538649082183838e-01 2.8906866908073425e-01</leafValues></_>
        <_>
          <internalNodes>
            0 -1 43 1.2089245952665806e-02</internalNodes>
          <leafValues>
            -4.8515924811363220e-01 1.2102156132459641e-01</leafValues></_>
        <_>
          <internalNodes>
            0 -1 78 2.0467150956392288e-02</internalNodes>
          <leafValues>
            -7.1281290054321289e-01 8.3541966974735260e-02</leafValues></_>
        <_>
          <internalNodes>
            0 -1 84 7.7282167039811611e-03</internalNodes>
          <leafValues>
            -8.1871348619461060e-01 6.0596689581871033e-02</leafValues></_>
        <_>
          <internalNodes>
            0 -1 12 2.0895572379231453e-02</internalNodes>
          <leafValues>
            1.5510286390781403e-01 -3.9387339353561401e-01</leafValues></_></weakClassifiers></_>
    <!-- stage 13 -->
    <_>
      <maxWeakCount>23</maxWeakCount>
      <stageThreshold>-7.1290773153305054e-01</stageThreshold>
      <weakClassifiers>
        <_>
          <internalNodes>
            0 -1 72 2.3382473737001419e-02</internalNodes>
          <leafValues>
            5.7777780294418335e-01 -3.1578946113586426e-01</leafValues></_>
        <_>
          <internalNodes>
            0 -1 33 2.3960566520690918e-01</internalNodes>
          <leafValues>
            -7.3488608002662659e-02 8.5201978683471680e-01</leafValues></_>
        <_>
          <internalNodes>
            0 -1 41 4.8653878271579742e-02</internalNodes>
          <leafValues>
            -2.1942311525344849e-01 4.3502703309059143e-01</leafValues></_>
        <_>
          <internalNodes>
            0 -1 13 1.7852116376161575e-02</internalNodes>
          <leafValues>
            -6.0075885057449341e-01 1.2151055037975311e-01</leafValues></_>
        <_>
          <internalNodes>
            0 -1 87 9.0730283409357071e-03</internalNodes>
          <leafValues>
            -5.9044176340103149e-01 1.1430227756500244e-01</leafValues></_>
        <_>
          <internalNodes>
            0 -1 7 6.3905075192451477e-02</internalNodes>
          <leafValues>
            1.0781688988208771e-01 -6.4091098308563232e-01</leafValues></_>
        <_>
          <internalNodes>
            0 -1 73 9.8873153328895569e-02</internalNodes>
          <leafValues>
            -1.1805823445320129e-01 8.8552016019821167e-01</leafValues></_>
        <_>
          <internalNodes>
            0 -1 91 5.0853144377470016e-02</internalNodes>
          <leafValues>
            -4.1187292337417603e-01 2.3819011449813843e-01</leafValues></_>
        <_>
          <internalNodes>
            0 -1 109 2.4644512683153152e-02</internalNodes>
          <leafValues>
            -2.6878839731216431e-01 2.8903445601463318e-01</leafValues></_>
        <_>
          <internalNodes>
            0 -1 97 7.5611397624015808e-02</internalNodes>
          <leafValues>
            -1.9169668853282928e-01 3.5920283198356628e-01</leafValues></_>
        <_>
          <internalNodes>
            0 -1 101 4.6455292031168938e-03</internalNodes>
          <leafValues>
            -8.2768809795379639e-01 7.9090945422649384e-02</leafValues></_>
        <_>
          <internalNodes>
            0 -1 94 2.5097195059061050e-02</internalNodes>
          <leafValues>
            -3.4527814388275146e-01 1.7612709105014801e-01</leafValues></_>
        <_>
          <internalNodes>
            0 -1 95 1.0600929707288742e-01</internalNodes>
          <leafValues>
            -1.0393060743808746e-01 5.7736289501190186e-01</leafValues></_>
        <_>
          <internalNodes>
            0 -1 25 2.0259225741028786e-02</internalNodes>
          <leafValues>
            -2.8378513455390930e-01 2.8878608345985413e-01</leafValues></_>
        <_>
          <internalNodes>
            0 -1 58 1.1455833911895752e-02</internalNodes>
          <leafValues>
            1.8959341943264008e-01 -3.4532594680786133e-01</leafValues></_>
        <_>
          <internalNodes>
            0 -1 20 1.3137602247297764e-02</internalNodes>
          <leafValues>
            -3.5655567049980164e-01 2.2306203842163086e-01</leafValues></_>
        <_>
          <internalNodes>
            0 -1 100 1.2404178269207478e-02</internalNodes>
          <leafValues>
            1.1477267742156982e-01 -5.4730141162872314e-01</leafValues></_>
        <_>
          <internalNodes>
            0 -1 17 1.0548976249992847e-02</internalNodes>
          <leafValues>
            -3.6223039031028748e-01 1.6941574215888977e-01</leafValues></_>
        <_>
          <internalNodes>
            0 -1 90 3.9807960391044617e-02</internalNodes>
          <leafValues>
            -5.1601856946945190e-01 1.2202859669923782e-01</leafValues></_>
        <_>
          <internalNodes>
            0 -1 56 1.7462197691202164e-02</internalNodes>
          <leafValues>
            -3.9006251096725464e-01 1.5269322693347931e-01</leafValues></_>
        <_>
          <internalNodes>
            0 -1 60 6.7433416843414307e-02</internalNodes>
          <leafValues>
            -2.5070464611053467e-01 2.4914157390594482e-01</leafValues></_>
        <_>
          <internalNodes>
            0 -1 103 1.0179589502513409e-02</internalNodes>
          <leafValues>
            -5.3399902582168579e-01 1.2874004244804382e-01</leafValues></_>
        <_>
          <internalNodes>
            0 -1 75 4.6460311859846115e-03</internalNodes>
          <leafValues>
            -5.7410871982574463e-01 9.8093815147876740e-02</leafValues></_></weakClassifiers></_></stages>
  <features>
    <_>
      <rect>
        0 0 8 8 10</rect></_>
    <_>
      <rect>
        0 0 8 8 11</rect></_>
    <_>
      <rect>
        0 0 8 8 18</rect></_>
    <_>
      <rect>
        0 0 8 8 19</rect></_>
    <_>
      <rect>
        0 0 8 8 21</rect></_>
    <_>
      <rect>
        0 8 8 8 0</rect></_>
    <_>
      <rect>
        0 8 8 8 1</rect></_>
    <_>
      <rect>
        0 8 8 8 8</rect></_>
    <_>
      <rect>
        0 8 8 8 35</rect></_>
    <_>
      <rect>
        0 12 8 8 25</rect></_>
    <_>
      <rect>
        0 12 8 8 26</rect></_>
    <_>
      <rect>
        0 16 8 8 0</rect></_>
    <_>
      <rect>
        0 16 8 8 20</rect></_>
    <_>
      <rect>
        0 16 8 8 22</rect></_>
    <_>
      <rect>
        0 16 8 8 29</rect></_>
    <_>
      <rect>
        0 16 8 8 30</rect></_>
    <_>
      <rect>
        4 0 8 8 4</rect></_>
    <_>
      <rect>
        4 0 8 8 24</rect></_>
    <_>
      <rect>
        4 4 8 8 15</rect></_>
    <_>
      <rect>
        4 12 8 8 7</rect></_>
    <_>
      <rect>
        4 12 8 8 18</rect></_>
    <_>
      <rect>
        4 16 8 8 18</rect></_>
    <_>
      <rect>
        8 0 8 8 4</rect></_>
    <_>
      <rect>
        8 16 8 8 12</rect></_>
    <_>
      <rect>
        8 16 8 8 13</rect></_>
    <_>
      <rect>
        8 16 8 8 14</rect></_>
    <_>
      <rect>
        8 16 8 8 19</rect></_>
    <_>
      <rect>
        8 16 8 8 20</rect></_>
    <_>
      <rect>
        8 16 8 8 27</rect></_>
    <_>
      <rect>
        8 16 8 8 35</rect></_>
    <_>
      <rect>
        12 0 8 8 3</rect></_>
    <_>
      <rect>
        12 0 8 8 12</rect></_>
    <_>
      <rect>
        12 0 8 8 13</rect></_>
    <_>
      <rect>
        12 4 8 8 13</rect></_>
    <_>
      <rect>
        12 16 8 8 35</rect></_>
    <_>
      <rect>
        16 0 8 8 13</rect></_>
    <_>
      <rect>
        16 16 8 8 3</rect></_>
    <_>
      <rect>
        16 16 8 8 26</rect></_>
    <_>
      <rect>
        20 0 8 8 3</rect></_>
    <_>
      <rect>
        20 0 8 8 4</rect></_>
    <_>
      <rect>
        20 4 8 8 4</rect></_>
    <_>
      <rect>
        20 4 8 8 16</rect></_>
    <_>
      <rect>
        20 8 8 8 4</rect></_>
    <_>
      <rect>
        20 8 8 8 17</rect></_>
    <_>
      <rect>
        20 12 8 8 16</rect></_>
    <_>
      <rect>
        20 16 8 8 21</rect></_>
    <_>
      <rect>
        24 0 8 8 4</rect></_>
    <_>
      <rect>
        24 0 8 8 34</rect></_>
    <_>
      <rect>
        24 8 8 8 16</rect></_>
    <_>
      <rect>
        24 12 8 8 15</rect></_>
    <_>
      <rect>
        24 12 8 8 31</rect></_>
    <_>
      <rect>
        24 12 8 8 34</rect></_>
    <_>
      <rect>
        24 16 8 8 22</rect></_>
    <_>
      <rect>
        24 16 8 8 30</rect></_>
    <_>
      <rect>
        24 16 8 8 34</rect></_>
    <_>
      <rect>
        0 0 8 16 25</rect></_>
    <_>
      <rect>
        0 0 8 16 26</rect></_>
    <_>
      <rect>
        4 0 8 16 0</rect></_>
    <_>
      <rect>
        4 0 8 16 28</rect></_>
    <_>
      <rect>
        4 0 8 16 35</rect></_>
    <_>
      <rect>
        8 0 8 16 12</rect></_>
    <_>
      <rect>
        12 0 8 16 13</rect></_>
    <_>
      <rect>
        12 0 8 16 34</rect></_>
    <_>
      <rect>
        16 0 8 16 21</rect></_>
    <_>
      <rect>
        16 0 8 16 26</rect></_>
    <_>
      <rect>
        20 0 8 16 4</rect></_>
    <_>
      <rect>
        20 0 8 16 16</rect></_>
    <_>
      <rect>
        24 0 8 16 34</rect></_>
    <_>
      <rect>
        0 0 16 8 9</rect></_>
    <_>
      <rect>
        0 0 16 8 13</rect></_>
    <_>
      <rect>
        0 0 16 8 17</rect></_>
    <_>
      <rect>
        0 0 16 8 32</rect></_>
    <_>
      <rect>
        0 0 16 8 33</rect></_>
    <_>
      <rect>
        0 0 16 8 35</rect></_>
    <_>
      <rect>
        0 4 16 8 10</rect></_>
    <_>
      <rect>
        0 4 16 8 27</rect></_>
    <_>
      <rect>
        0 8 16 8 5</rect></_>
    <_>
      <rect>
        0 12 16 8 8</rect></_>
    <_>
      <rect>
        0 12 16 8 12</rect></_>
    <_>
      <rect>
        0 16 16 8 12</rect></_>
    <_>
      <rect>
        0 16 16 8 13</rect></_>
    <_>
      <rect>
        0 16 16 8 27</rect></_>
    <_>
      <rect>
        0 16 16 8 29</rect></_>
    <_>
      <rect>
        0 16 16 8 31</rect></_>
    <_>
      <rect>
        4 0 16 8 14</rect></_>
    <_>
      <rect>
        4 0 16 8 21</rect></_>
    <_>
      <rect>
        4 8 16 8 3</rect></_>
    <_>
      <rect>
        4 12 16 8 0</rect></_>
    <_>
      <rect>
        4 12 16 8 35</rect></_>
    <_>
      <rect>
        4 16 16 8 11</rect></_>
    <_>
      <rect>
        4 16 16 8 30</rect></_>
    <_>
      <rect>
        8 0 16 8 13</rect></_>
    <_>
      <rect>
        8 0 16 8 26</rect></_>
    <_>
      <rect>
        8 4 16 8 16</rect></_>
    <_>
      <rect>
        8 4 16 8 17</rect></_>
    <_>
      <rect>
        8 8 16 8 4</rect></_>
    <_>
      <rect>
        8 8 16 8 21</rect></_>
    <_>
      <rect>
        8 12 16 8 21</rect></_>
    <_>
      <rect>
        8 12 16 8 33</rect></_>
    <_>
      <rect>
        8 16 16 8 3</rect></_>
    <_>
      <rect>
        8 16 16 8 25</rect></_>
    <_>
      <rect>
        8 16 16 8 32</rect></_>
    <_>
      <rect>
        0 0 16 16 0</rect></_>
    <_>
      <rect>
        0 0 16 16 7</rect></_>
    <_>
      <rect>
        0 0 16 16 26</rect></_>
    <_>
      <rect>
        0 0 16 16 35</rect></_>
    <_>
      <rect>
        4 0 16 16 22</rect></_>
    <_>
      <rect>
        8 0 16 16 8</rect></_>
    <_>
      <rect>
        8 0 16 16 14</rect></_>
    <_>
      <rect>
        8 0 16 16 15</rect></_>
    <_>
      <rect>
        8 0 16 16 16</rect></_>
    <_>
      <rect>
        8 0 16 16 28</rect></_></features></cascade>
</opencv_storage>
